<?xml version="1.0"?>
<opencv_storage>
<cascade>
  <stageType>BOOST</stageType>
  <featureType>HAAR</featureType>
  <height>20</height>
  <width>20</width>
  <stageParams>
    <boostType>GAB</boostType>
    <minHitRate>9.9500000476837158e-01</minHitRate>
    <maxFalseAlarm>5.0000000000000000e-01</maxFalseAlarm>
    <weightTrimRate>9.4999999999999996e-01</weightTrimRate>
    <maxDepth>1</maxDepth>
    <maxWeakCount>100</maxWeakCount></stageParams>
  <featureParams>
    <maxCatCount>0</maxCatCount>
    <featSize>1</featSize>
    <mode>BASIC</mode></featureParams>
  <stageNum>10</stageNum>
  <stages>
    <!-- stage 0 -->
    <_>
      <maxWeakCount>3</maxWeakCount>
      <stageThreshold>-4.2388296127319336e-01</stageThreshold>
      <weakClassifiers>
        <_>
          <internalNodes>
            0 -1 88 1.0281166061758995e-02</internalNodes>
          <leafValues>
            -5.5971896648406982e-01 7.4647885560989380e-01</leafValues></_>
        <_>
          <internalNodes>
            0 -1 5 -1.8725529313087463e-02</internalNodes>
          <leafValues>
            6.5685367584228516e-01 -5.5893045663833618e-01</leafValues></_>
        <_>
          <internalNodes>
            0 -1 13 9.5864534378051758e-03</internalNodes>
          <leafValues>
            -3.6716932058334351e-01 6.9476646184921265e-01</leafValues></_></weakClassifiers></_>
    <!-- stage 1 -->
    <_>
      <maxWeakCount>7</maxWeakCount>
      <stageThreshold>-1.3059165477752686e+00</stageThreshold>
      <weakClassifiers>
        <_>
          <internalNodes>
            0 -1 83 -6.0505289584398270e-03</internalNodes>
          <leafValues>
            6.2164896726608276e-01 -4.5504841208457947e-01</leafValues></_>
        <_>
          <internalNodes>
            0 -1 20 -1.8699115607887506e-03</internalNodes>
          <leafValues>
            5.2867513895034790e-01 -5.5034142732620239e-01</leafValues></_>
        <_>
          <internalNodes>
            0 -1 96 1.0225988924503326e-02</internalNodes>
          <leafValues>
            -5.1683557033538818e-01 5.8386272192001343e-01</leafValues></_>
        <_>
          <internalNodes>
            0 -1 37 1.2683933600783348e-02</internalNodes>
          <leafValues>
            -4.2700982093811035e-01 7.6002067327499390e-01</leafValues></_>
        <_>
          <internalNodes>
            0 -1 8 -1.0908419266343117e-02</internalNodes>
          <leafValues>
            3.3363309502601624e-01 -6.5878498554229736e-01</leafValues></_>
        <_>
          <internalNodes>
            0 -1 77 -8.0500161275267601e-03</internalNodes>
          <leafValues>
            5.7854849100112915e-01 -3.7335965037345886e-01</leafValues></_>
        <_>
          <internalNodes>
            0 -1 102 1.5209027333185077e-03</internalNodes>
          <leafValues>
            -3.9597126841545105e-01 4.6858486533164978e-01</leafValues></_></weakClassifiers></_>
    <!-- stage 2 -->
    <_>
      <maxWeakCount>8</maxWeakCount>
      <stageThreshold>-9.8585432767868042e-01</stageThreshold>
      <weakClassifiers>
        <_>
          <internalNodes>
            0 -1 31 1.7831438162829727e-04</internalNodes>
          <leafValues>
            -3.0058479309082031e-01 6.2710028886795044e-01</leafValues></_>
        <_>
          <internalNodes>
            0 -1 57 -6.1370572075247765e-03</internalNodes>
          <leafValues>
            5.7271021604537964e-01 -3.2501262426376343e-01</leafValues></_>
        <_>
          <internalNodes>
            0 -1 99 5.9555200859904289e-03</internalNodes>
          <leafValues>
            -5.3466856479644775e-01 3.9670965075492859e-01</leafValues></_>
        <_>
          <internalNodes>
            0 -1 25 4.5058399438858032e-02</internalNodes>
          <leafValues>
            -3.1203481554985046e-01 6.7853754758834839e-01</leafValues></_>
        <_>
          <internalNodes>
            0 -1 6 -2.1854259073734283e-02</internalNodes>
          <leafValues>
            3.1734102964401245e-01 -6.3677424192428589e-01</leafValues></_>
        <_>
          <internalNodes>
            0 -1 87 2.5238050147891045e-02</internalNodes>
          <leafValues>
            -4.6702113747596741e-01 3.8137117028236389e-01</leafValues></_>
        <_>
          <internalNodes>
            0 -1 46 -3.8707552012056112e-03</internalNodes>
          <leafValues>
            -8.4641468524932861e-01 1.6441567242145538e-01</leafValues></_>
        <_>
          <internalNodes>
            0 -1 62 4.6628909185528755e-03</internalNodes>
          <leafValues>
            -3.7668138742446899e-01 3.9226788282394409e-01</leafValues></_></weakClassifiers></_>
    <!-- stage 3 -->
    <_>
      <maxWeakCount>12</maxWeakCount>
      <stageThreshold>-1.0225033760070801e+00</stageThreshold>
      <weakClassifiers>
        <_>
          <internalNodes>
            0 -1 41 -5.8731492608785629e-03</internalNodes>
          <leafValues>
            -6.0416668653488159e-01 4.8877373337745667e-01</leafValues></_>
        <_>
          <internalNodes>
            0 -1 2 1.1469196528196335e-02</internalNodes>
          <leafValues>
            -3.0599772930145264e-01 5.4845315217971802e-01</leafValues></_>
        <_>
          <internalNodes>
            0 -1 91 -5.2558104507625103e-03</internalNodes>
          <leafValues>
            3.0477878451347351e-01 -5.8699274063110352e-01</leafValues></_>
        <_>
          <internalNodes>
            0 -1 26 8.2286000251770020e-03</internalNodes>
          <leafValues>
            -2.7145382761955261e-01 5.3994756937026978e-01</leafValues></_>
        <_>
          <internalNodes>
            0 -1 27 -3.8889490533620119e-03</internalNodes>
          <leafValues>
            3.7134793400764465e-01 -4.4461846351623535e-01</leafValues></_>
        <_>
          <internalNodes>
            0 -1 78 -9.3166194856166840e-03</internalNodes>
          <leafValues>
            4.2066493630409241e-01 -3.3139705657958984e-01</leafValues></_>
        <_>
          <internalNodes>
            0 -1 107 6.4066154882311821e-03</internalNodes>
          <leafValues>
            -3.2906404137611389e-01 5.0812357664108276e-01</leafValues></_>
        <_>
          <internalNodes>
            0 -1 45 6.3540681730955839e-04</internalNodes>
          <leafValues>
            1.9658985733985901e-01 -8.4676486253738403e-01</leafValues></_>
        <_>
          <internalNodes>
            0 -1 51 4.0352858603000641e-02</internalNodes>
          <leafValues>
            -2.0890593528747559e-01 7.2455126047134399e-01</leafValues></_>
        <_>
          <internalNodes>
            0 -1 69 -4.4745048508048058e-03</internalNodes>
          <leafValues>
            5.7423943281173706e-01 -2.1540087461471558e-01</leafValues></_>
        <_>
          <internalNodes>
            0 -1 20 -5.2624521777033806e-03</internalNodes>
          <leafValues>
            4.6732613444328308e-01 -2.6555624604225159e-01</leafValues></_>
        <_>
          <internalNodes>
            0 -1 102 2.4869227781891823e-03</internalNodes>
          <leafValues>
            -3.1265884637832642e-01 4.4011846184730530e-01</leafValues></_></weakClassifiers></_>
    <!-- stage 4 -->
    <_>
      <maxWeakCount>12</maxWeakCount>
      <stageThreshold>-8.8655239343643188e-01</stageThreshold>
      <weakClassifiers>
        <_>
          <internalNodes>
            0 -1 49 1.1847434798255563e-03</internalNodes>
          <leafValues>
            4.5862784981727600e-01 -6.8813556432723999e-01</leafValues></_>
        <_>
          <internalNodes>
            0 -1 12 9.7287623211741447e-03</internalNodes>
          <leafValues>
            -2.6409795880317688e-01 5.5362480878829956e-01</leafValues></_>
        <_>
          <internalNodes>
            0 -1 85 1.7663916572928429e-02</internalNodes>
          <leafValues>
            -4.8608553409576416e-01 3.0901142954826355e-01</leafValues></_>
        <_>
          <internalNodes>
            0 -1 111 -8.5595287382602692e-03</internalNodes>
          <leafValues>
            4.6986898779869080e-01 -2.7758821845054626e-01</leafValues></_>
        <_>
          <internalNodes>
            0 -1 4 -2.3846000432968140e-02</internalNodes>
          <leafValues>
            3.0062800645828247e-01 -4.5691594481468201e-01</leafValues></_>
        <_>
          <internalNodes>
            0 -1 54 1.2687833979725838e-02</internalNodes>
          <leafValues>
            -2.4663689732551575e-01 4.8125523328781128e-01</leafValues></_>
        <_>
          <internalNodes>
            0 -1 53 -9.9238511174917221e-03</internalNodes>
          <leafValues>
            6.5518981218338013e-01 -2.0215067267417908e-01</leafValues></_>
        <_>
          <internalNodes>
            0 -1 80 2.8991871513426304e-03</internalNodes>
          <leafValues>
            -2.8546616435050964e-01 3.9050394296646118e-01</leafValues></_>
        <_>
          <internalNodes>
            0 -1 28 -2.3526281118392944e-02</internalNodes>
          <leafValues>
            -8.1696194410324097e-01 1.5019112825393677e-01</leafValues></_>
        <_>
          <internalNodes>
            0 -1 30 3.0849699396640062e-04</internalNodes>
          <leafValues>
            -4.3038460612297058e-01 2.7423581480979919e-01</leafValues></_>
        <_>
          <internalNodes>
            0 -1 33 2.6942850090563297e-03</internalNodes>
          <leafValues>
            1.4592936635017395e-01 -8.6018723249435425e-01</leafValues></_>
        <_>
          <internalNodes>
            0 -1 97 -2.5122445076704025e-02</internalNodes>
          <leafValues>
            4.4411206245422363e-01 -2.6574531197547913e-01</leafValues></_></weakClassifiers></_>
    <!-- stage 5 -->
    <_>
      <maxWeakCount>13</maxWeakCount>
      <stageThreshold>-8.7729305028915405e-01</stageThreshold>
      <weakClassifiers>
        <_>
          <internalNodes>
            0 -1 31 1.7911815666593611e-04</internalNodes>
          <leafValues>
            -2.4174372851848602e-01 5.5738550424575806e-01</leafValues></_>
        <_>
          <internalNodes>
            0 -1 38 1.7854429781436920e-02</internalNodes>
          <leafValues>
            -2.2518947720527649e-01 5.6508851051330566e-01</leafValues></_>
        <_>
          <internalNodes>
            0 -1 73 -7.7541335485875607e-04</internalNodes>
          <leafValues>
            4.6263858675956726e-01 -2.4474215507507324e-01</leafValues></_>
        <_>
          <internalNodes>
            0 -1 39 -2.1086097694933414e-03</internalNodes>
          <leafValues>
            3.9639580249786377e-01 -3.0160579085350037e-01</leafValues></_>
        <_>
          <internalNodes>
            0 -1 9 1.0784728452563286e-02</internalNodes>
          <leafValues>
            1.5659087896347046e-01 -7.5868248939514160e-01</leafValues></_>
        <_>
          <internalNodes>
            0 -1 67 -1.3240627013146877e-03</internalNodes>
          <leafValues>
            2.6473650336265564e-01 -4.0502434968948364e-01</leafValues></_>
        <_>
          <internalNodes>
            0 -1 14 -6.7132990807294846e-03</internalNodes>
          <leafValues>
            4.8885810375213623e-01 -2.0494091510772705e-01</leafValues></_>
        <_>
          <internalNodes>
            0 -1 10 -1.1132259853184223e-02</internalNodes>
          <leafValues>
            3.0765256285667419e-01 -3.7803149223327637e-01</leafValues></_>
        <_>
          <internalNodes>
            0 -1 98 4.9032722599804401e-03</internalNodes>
          <leafValues>
            -4.1792243719100952e-01 2.6633226871490479e-01</leafValues></_>
        <_>
          <internalNodes>
            0 -1 55 -2.9969594907015562e-03</internalNodes>
          <leafValues>
            3.6660611629486084e-01 -3.3380237221717834e-01</leafValues></_>
        <_>
          <internalNodes>
            0 -1 44 -9.6638686954975128e-04</internalNodes>
          <leafValues>
            -5.5156481266021729e-01 2.0116047561168671e-01</leafValues></_>
        <_>
          <internalNodes>
            0 -1 94 -1.4064553193747997e-02</internalNodes>
          <leafValues>
            4.1676884889602661e-01 -2.4877168238162994e-01</leafValues></_>
        <_>
          <internalNodes>
            0 -1 72 -8.5533782839775085e-04</internalNodes>
          <leafValues>
            4.7640445828437805e-01 -2.2065286338329315e-01</leafValues></_></weakClassifiers></_>
    <!-- stage 6 -->
    <_>
      <maxWeakCount>14</maxWeakCount>
      <stageThreshold>-8.1257116794586182e-01</stageThreshold>
      <weakClassifiers>
        <_>
          <internalNodes>
            0 -1 110 -7.1550179272890091e-03</internalNodes>
          <leafValues>
            7.2035974264144897e-01 1.2863913550972939e-02</leafValues></_>
        <_>
          <internalNodes>
            0 -1 3 1.2799866497516632e-02</internalNodes>
          <leafValues>
            -2.1169720590114594e-01 5.6564271450042725e-01</leafValues></_>
        <_>
          <internalNodes>
            0 -1 21 -1.9185235723853111e-03</internalNodes>
          <leafValues>
            2.4708376824855804e-01 -4.6663761138916016e-01</leafValues></_>
        <_>
          <internalNodes>
            0 -1 84 2.2917162626981735e-02</internalNodes>
          <leafValues>
            -3.4288102388381958e-01 2.9781299829483032e-01</leafValues></_>
        <_>
          <internalNodes>
            0 -1 43 -1.2100831372663379e-03</internalNodes>
          <leafValues>
            -7.9829430580139160e-01 1.1824057996273041e-01</leafValues></_>
        <_>
          <internalNodes>
            0 -1 75 -3.7481165491044521e-03</internalNodes>
          <leafValues>
            3.6288887262344360e-01 -2.7794897556304932e-01</leafValues></_>
        <_>
          <internalNodes>
            0 -1 43 1.2043882161378860e-03</internalNodes>
          <leafValues>
            1.2472315132617950e-01 -7.6798248291015625e-01</leafValues></_>
        <_>
          <internalNodes>
            0 -1 60 -4.0150522254407406e-03</internalNodes>
          <leafValues>
            4.6400314569473267e-01 -2.1537761390209198e-01</leafValues></_>
        <_>
          <internalNodes>
            0 -1 35 3.5976417362689972e-02</internalNodes>
          <leafValues>
            -1.5717230737209320e-01 5.6431889533996582e-01</leafValues></_>
        <_>
          <internalNodes>
            0 -1 106 1.0815879795700312e-03</internalNodes>
          <leafValues>
            -3.3766254782676697e-01 3.1703710556030273e-01</leafValues></_>
        <_>
          <internalNodes>
            0 -1 108 -5.2222739905118942e-03</internalNodes>
          <leafValues>
            6.4579868316650391e-01 -1.4877492189407349e-01</leafValues></_>
        <_>
          <internalNodes>
            0 -1 42 -5.3138332441449165e-03</internalNodes>
          <leafValues>
            -6.2292295694351196e-01 1.6820366680622101e-01</leafValues></_>
        <_>
          <internalNodes>
            0 -1 29 1.8171510600950569e-04</internalNodes>
          <leafValues>
            -3.7200850248336792e-01 2.5706341862678528e-01</leafValues></_>
        <_>
          <internalNodes>
            0 -1 92 9.1640669852495193e-03</internalNodes>
          <leafValues>
            1.2413365393877029e-01 -6.8270647525787354e-01</leafValues></_></weakClassifiers></_>
    <!-- stage 7 -->
    <_>
      <maxWeakCount>17</maxWeakCount>
      <stageThreshold>-9.1100734472274780e-01</stageThreshold>
      <weakClassifiers>
        <_>
          <internalNodes>
            0 -1 95 2.6774797588586807e-03</internalNodes>
          <leafValues>
            4.4648829102516174e-01 -5.4545456171035767e-01</leafValues></_>
        <_>
          <internalNodes>
            0 -1 0 2.4666566401720047e-02</internalNodes>
          <leafValues>
            -1.8582493066787720e-01 5.7043737173080444e-01</leafValues></_>
        <_>
          <internalNodes>
            0 -1 25 3.5814240574836731e-02</internalNodes>
          <leafValues>
            -2.5516745448112488e-01 3.9529943466186523e-01</leafValues></_>
        <_>
          <internalNodes>
            0 -1 24 -9.0392362326383591e-03</internalNodes>
          <leafValues>
            3.7434062361717224e-01 -2.9912734031677246e-01</leafValues></_>
        <_>
          <internalNodes>
            0 -1 64 2.4711617734283209e-03</internalNodes>
          <leafValues>
            -2.6050454378128052e-01 3.9174059033393860e-01</leafValues></_>
        <_>
          <internalNodes>
            0 -1 11 4.9817655235528946e-03</internalNodes>
          <leafValues>
            -2.3599173128604889e-01 4.5584049820899963e-01</leafValues></_>
        <_>
          <internalNodes>
            0 -1 50 3.2743259798735380e-03</internalNodes>
          <leafValues>
            -2.0653390884399414e-01 4.9550971388816833e-01</leafValues></_>
        <_>
          <internalNodes>
            0 -1 81 -6.3620060682296753e-03</internalNodes>
          <leafValues>
            3.8087233901023865e-01 -2.5151348114013672e-01</leafValues></_>
        <_>
          <internalNodes>
            0 -1 74 3.5835211165249348e-03</internalNodes>
          <leafValues>
            1.5063060820102692e-01 -7.0999640226364136e-01</leafValues></_>
        <_>
          <internalNodes>
            0 -1 17 -1.3365272898226976e-03</internalNodes>
          <leafValues>
            2.7413260936737061e-01 -3.4679567813873291e-01</leafValues></_>
        <_>
          <internalNodes>
            0 -1 79 -1.3415745925158262e-03</internalNodes>
          <leafValues>
            3.8991540670394897e-01 -2.6534995436668396e-01</leafValues></_>
        <_>
          <internalNodes>
            0 -1 34 2.6836940087378025e-03</internalNodes>
          <leafValues>
            -1.9323600828647614e-01 4.5199745893478394e-01</leafValues></_>
        <_>
          <internalNodes>
            0 -1 63 -2.1136075258255005e-02</internalNodes>
          <leafValues>
            5.8901822566986084e-01 -1.4816890656948090e-01</leafValues></_>
        <_>
          <internalNodes>
            0 -1 40 -1.3098947238177061e-03</internalNodes>
          <leafValues>
            4.6919423341751099e-01 -1.9296997785568237e-01</leafValues></_>
        <_>
          <internalNodes>
            0 -1 47 1.2706717476248741e-02</internalNodes>
          <leafValues>
            1.3316747546195984e-01 -7.4934756755828857e-01</leafValues></_>
        <_>
          <internalNodes>
            0 -1 48 -3.0951567459851503e-03</internalNodes>
          <leafValues>
            -5.3770995140075684e-01 1.5463991463184357e-01</leafValues></_>
        <_>
          <internalNodes>
            0 -1 52 -5.6621935218572617e-03</internalNodes>
          <leafValues>
            4.3130183219909668e-01 -2.0741675794124603e-01</leafValues></_></weakClassifiers></_>
    <!-- stage 8 -->
    <_>
      <maxWeakCount>19</maxWeakCount>
      <stageThreshold>-1.0775202512741089e+00</stageThreshold>
      <weakClassifiers>
        <_>
          <internalNodes>
            0 -1 112 -4.8891720362007618e-03</internalNodes>
          <leafValues>
            7.1836346387863159e-01 8.7932080030441284e-02</leafValues></_>
        <_>
          <internalNodes>
            0 -1 22 -2.3885755799710751e-03</internalNodes>
          <leafValues>
            3.9359804987907410e-01 -2.6220998167991638e-01</leafValues></_>
        <_>
          <internalNodes>
            0 -1 31 1.0631983168423176e-03</internalNodes>
          <leafValues>
            1.4930227398872375e-01 -7.5871294736862183e-01</leafValues></_>
        <_>
          <internalNodes>
            0 -1 31 2.1946334163658321e-04</internalNodes>
          <leafValues>
            -4.6668919920921326e-01 2.2400166094303131e-01</leafValues></_>
        <_>
          <internalNodes>
            0 -1 86 -1.9439090974628925e-03</internalNodes>
          <leafValues>
            2.6022779941558838e-01 -3.6021021008491516e-01</leafValues></_>
        <_>
          <internalNodes>
            0 -1 19 -9.7016422078013420e-03</internalNodes>
          <leafValues>
            2.3567661643028259e-01 -3.9915853738784790e-01</leafValues></_>
        <_>
          <internalNodes>
            0 -1 70 -8.9533962309360504e-03</internalNodes>
          <leafValues>
            3.8484430313110352e-01 -2.3730127513408661e-01</leafValues></_>
        <_>
          <internalNodes>
            0 -1 89 1.0467911139130592e-02</internalNodes>
          <leafValues>
            -5.1174950599670410e-01 1.6632063686847687e-01</leafValues></_>
        <_>
          <internalNodes>
            0 -1 16 3.0074985697865486e-03</internalNodes>
          <leafValues>
            -1.7757211625576019e-01 5.0262540578842163e-01</leafValues></_>
        <_>
          <internalNodes>
            0 -1 1 3.2526656985282898e-02</internalNodes>
          <leafValues>
            -1.1168948560953140e-01 7.7476161718368530e-01</leafValues></_>
        <_>
          <internalNodes>
            0 -1 32 1.6360247973352671e-03</internalNodes>
          <leafValues>
            1.3294246792793274e-01 -7.3010098934173584e-01</leafValues></_>
        <_>
          <internalNodes>
            0 -1 90 1.1891980655491352e-02</internalNodes>
          <leafValues>
            -1.7789474129676819e-01 5.4777449369430542e-01</leafValues></_>
        <_>
          <internalNodes>
            0 -1 104 -3.0410278122872114e-03</internalNodes>
          <leafValues>
            3.8518568873405457e-01 -1.9141814112663269e-01</leafValues></_>
        <_>
          <internalNodes>
            0 -1 105 -9.8564298823475838e-03</internalNodes>
          <leafValues>
            5.0277304649353027e-01 -1.8652516603469849e-01</leafValues></_>
        <_>
          <internalNodes>
            0 -1 7 -1.8236789852380753e-02</internalNodes>
          <leafValues>
            1.9808371365070343e-01 -4.5994603633880615e-01</leafValues></_>
        <_>
          <internalNodes>
            0 -1 68 3.4256451763212681e-03</internalNodes>
          <leafValues>
            9.9503964185714722e-02 -7.5471985340118408e-01</leafValues></_>
        <_>
          <internalNodes>
            0 -1 61 6.0763224028050900e-03</internalNodes>
          <leafValues>
            -1.8359994888305664e-01 4.5040917396545410e-01</leafValues></_>
        <_>
          <internalNodes>
            0 -1 71 -2.6809605769813061e-03</internalNodes>
          <leafValues>
            3.8307780027389526e-01 -2.1578483283519745e-01</leafValues></_>
        <_>
          <internalNodes>
            0 -1 56 -7.4527869001030922e-03</internalNodes>
          <leafValues>
            4.3852353096008301e-01 -1.9622239470481873e-01</leafValues></_></weakClassifiers></_>
    <!-- stage 9 -->
    <_>
      <maxWeakCount>18</maxWeakCount>
      <stageThreshold>-8.0769461393356323e-01</stageThreshold>
      <weakClassifiers>
        <_>
          <internalNodes>
            0 -1 15 -2.4348083883523941e-02</internalNodes>
          <leafValues>
            -4.5402297377586365e-01 4.4982993602752686e-01</leafValues></_>
        <_>
          <internalNodes>
            0 -1 66 -1.2015325482934713e-03</internalNodes>
          <leafValues>
            3.7684637308120728e-01 -2.3918811976909637e-01</leafValues></_>
        <_>
          <internalNodes>
            0 -1 36 1.6728473827242851e-02</internalNodes>
          <leafValues>
            -1.8064914643764496e-01 4.6619647741317749e-01</leafValues></_>
        <_>
          <internalNodes>
            0 -1 18 -1.0754769667983055e-02</internalNodes>
          <leafValues>
            2.1789631247520447e-01 -3.9458668231964111e-01</leafValues></_>
        <_>
          <internalNodes>
            0 -1 65 -1.9726646132767200e-03</internalNodes>
          <leafValues>
            3.7545061111450195e-01 -2.4542425572872162e-01</leafValues></_>
        <_>
          <internalNodes>
            0 -1 82 2.6598467957228422e-04</internalNodes>
          <leafValues>
            -3.4839889407157898e-01 2.4670869112014771e-01</leafValues></_>
        <_>
          <internalNodes>
            0 -1 103 8.4914462640881538e-03</internalNodes>
          <leafValues>
            -2.1198919415473938e-01 4.5148012042045593e-01</leafValues></_>
        <_>
          <internalNodes>
            0 -1 93 -1.5963561832904816e-02</internalNodes>
          <leafValues>
            -7.2175210714340210e-01 1.4840863645076752e-01</leafValues></_>
        <_>
          <internalNodes>
            0 -1 109 8.7012797594070435e-03</internalNodes>
          <leafValues>
            -1.9913981854915619e-01 4.5949414372444153e-01</leafValues></_>
        <_>
          <internalNodes>
            0 -1 59 1.3670607469975948e-02</internalNodes>
          <leafValues>
            1.2963739037513733e-01 -8.2242292165756226e-01</leafValues></_>
        <_>
          <internalNodes>
            0 -1 68 -3.6733739543706179e-03</internalNodes>
          <leafValues>
            -6.6196089982986450e-01 7.7033527195453644e-02</leafValues></_>
        <_>
          <internalNodes>
            0 -1 100 2.8287605382502079e-03</internalNodes>
          <leafValues>
            -2.2892375290393829e-01 3.8727411627769470e-01</leafValues></_>
        <_>
          <internalNodes>
            0 -1 76 -3.1196419149637222e-03</internalNodes>
          <leafValues>
            -6.9161647558212280e-01 1.2083914130926132e-01</leafValues></_>
        <_>
          <internalNodes>
            0 -1 45 4.6044401824474335e-04</internalNodes>
          <leafValues>
            1.0751650482416153e-01 -6.5884560346603394e-01</leafValues></_>
        <_>
          <internalNodes>
            0 -1 45 -4.0424941107630730e-04</internalNodes>
          <leafValues>
            -6.5680289268493652e-01 1.3361629843711853e-01</leafValues></_>
        <_>
          <internalNodes>
            0 -1 58 4.5763114467263222e-03</internalNodes>
          <leafValues>
            -2.1312518417835236e-01 3.6942803859710693e-01</leafValues></_>
        <_>
          <internalNodes>
            0 -1 101 -7.1451780386269093e-03</internalNodes>
          <leafValues>
            5.1019787788391113e-01 -1.6037489473819733e-01</leafValues></_>
        <_>
          <internalNodes>
            0 -1 23 -2.6426832191646099e-03</internalNodes>
          <leafValues>
            4.4171306490898132e-01 -1.6897398233413696e-01</leafValues></_></weakClassifiers></_></stages>
  <features>
    <_>
      <rects>
        <_>
          0 4 2 14 -1.</_>
        <_>
          1 4 1 14 2.</_></rects>
      <tilted>0</tilted></_>
    <_>
      <rects>
        <_>
          0 5 3 6 -1.</_>
        <_>
          1 5 1 6 3.</_></rects>
      <tilted>0</tilted></_>
    <_>
      <rects>
        <_>
          0 5 2 11 -1.</_>
        <_>
          1 5 1 11 2.</_></rects>
      <tilted>0</tilted></_>
    <_>
      <rects>
        <_>
          0 6 2 10 -1.</_>
        <_>
          1 6 1 10 2.</_></rects>
      <tilted>0</tilted></_>
    <_>
      <rects>
        <_>
          1 5 6 4 -1.</_>
        <_>
          4 5 3 4 2.</_></rects>
      <tilted>0</tilted></_>
    <_>
      <rects>
        <_>
          1 6 6 4 -1.</_>
        <_>
          4 6 3 4 2.</_></rects>
      <tilted>0</tilted></_>
    <_>
      <rects>
        <_>
          1 6 6 6 -1.</_>
        <_>
          4 6 3 6 2.</_></rects>
      <tilted>0</tilted></_>
    <_>
      <rects>
        <_>
          1 6 8 8 -1.</_>
        <_>
          5 6 4 8 2.</_></rects>
      <tilted>0</tilted></_>
    <_>
      <rects>
        <_>
          1 7 6 6 -1.</_>
        <_>
          4 7 3 6 2.</_></rects>
      <tilted>0</tilted></_>
    <_>
      <rects>
        <_>
          1 7 16 1 -1.</_>
        <_>
          9 7 8 1 2.</_></rects>
      <tilted>0</tilted></_>
    <_>
      <rects>
        <_>
          1 8 4 3 -1.</_>
        <_>
          3 8 2 3 2.</_></rects>
      <tilted>0</tilted></_>
    <_>
      <rects>
        <_>
          1 9 2 2 -1.</_>
        <_>
          2 9 1 2 2.</_></rects>
      <tilted>0</tilted></_>
    <_>
      <rects>
        <_>
          1 9 3 2 -1.</_>
        <_>
          2 9 1 2 3.</_></rects>
      <tilted>0</tilted></_>
    <_>
      <rects>
        <_>
          1 9 3 3 -1.</_>
        <_>
          2 9 1 3 3.</_></rects>
      <tilted>0</tilted></_>
    <_>
      <rects>
        <_>
          1 9 2 6 -1.</_>
        <_>
          1 9 1 3 2.</_>
        <_>
          2 12 1 3 2.</_></rects>
      <tilted>0</tilted></_>
    <_>
      <rects>
        <_>
          1 9 10 2 -1.</_>
        <_>
          6 9 5 2 2.</_></rects>
      <tilted>0</tilted></_>
    <_>
      <rects>
        <_>
          1 10 2 1 -1.</_>
        <_>
          2 10 1 1 2.</_></rects>
      <tilted>0</tilted></_>
    <_>
      <rects>
        <_>
          1 12 2 3 -1.</_>
        <_>
          2 12 1 3 2.</_></rects>
      <tilted>0</tilted></_>
    <_>
      <rects>
        <_>
          2 4 6 4 -1.</_>
        <_>
          5 4 3 4 2.</_></rects>
      <tilted>0</tilted></_>
    <_>
      <rects>
        <_>
          2 5 9 2 -1.</_>
        <_>
          5 5 3 2 3.</_></rects>
      <tilted>0</tilted></_>
    <_>
      <rects>
        <_>
          2 9 2 2 -1.</_>
        <_>
          3 9 1 2 2.</_></rects>
      <tilted>0</tilted></_>
    <_>
      <rects>
        <_>
          2 9 6 1 -1.</_>
        <_>
          4 9 2 1 3.</_></rects>
      <tilted>0</tilted></_>
    <_>
      <rects>
        <_>
          2 10 2 1 -1.</_>
        <_>
          3 10 1 1 2.</_></rects>
      <tilted>0</tilted></_>
    <_>
      <rects>
        <_>
          2 11 2 6 -1.</_>
        <_>
          2 11 1 3 2.</_>
        <_>
          3 14 1 3 2.</_></rects>
      <tilted>0</tilted></_>
    <_>
      <rects>
        <_>
          3 2 8 2 -1.</_>
        <_>
          7 2 4 2 2.</_></rects>
      <tilted>0</tilted></_>
    <_>
      <rects>
        <_>
          4 0 11 6 -1.</_>
        <_>
          4 2 11 2 3.</_></rects>
      <tilted>0</tilted></_>
    <_>
      <rects>
        <_>
          4 0 13 2 -1.</_>
        <_>
          4 1 13 1 2.</_></rects>
      <tilted>0</tilted></_>
    <_>
      <rects>
        <_>
          4 4 1 6 -1.</_>
        <_>
          4 7 1 3 2.</_></rects>
      <tilted>0</tilted></_>
    <_>
      <rects>
        <_>
          4 8 12 3 -1.</_>
        <_>
          8 8 4 3 3.</_></rects>
      <tilted>0</tilted></_>
    <_>
      <rects>
        <_>
          4 9 2 1 -1.</_>
        <_>
          5 9 1 1 2.</_></rects>
      <tilted>0</tilted></_>
    <_>
      <rects>
        <_>
          4 9 2 2 -1.</_>
        <_>
          5 9 1 2 2.</_></rects>
      <tilted>0</tilted></_>
    <_>
      <rects>
        <_>
          4 10 2 1 -1.</_>
        <_>
          5 10 1 1 2.</_></rects>
      <tilted>0</tilted></_>
    <_>
      <rects>
        <_>
          4 10 3 1 -1.</_>
        <_>
          5 10 1 1 3.</_></rects>
      <tilted>0</tilted></_>
    <_>
      <rects>
        <_>
          4 10 2 2 -1.</_>
        <_>
          5 10 1 2 2.</_></rects>
      <tilted>0</tilted></_>
    <_>
      <rects>
        <_>
          4 17 4 2 -1.</_>
        <_>
          4 18 4 1 2.</_></rects>
      <tilted>0</tilted></_>
    <_>
      <rects>
        <_>
          5 0 12 4 -1.</_>
        <_>
          5 2 12 2 2.</_></rects>
      <tilted>0</tilted></_>
    <_>
      <rects>
        <_>
          5 1 7 3 -1.</_>
        <_>
          5 2 7 1 3.</_></rects>
      <tilted>0</tilted></_>
    <_>
      <rects>
        <_>
          5 1 9 3 -1.</_>
        <_>
          5 2 9 1 3.</_></rects>
      <tilted>0</tilted></_>
    <_>
      <rects>
        <_>
          5 1 10 3 -1.</_>
        <_>
          5 2 10 1 3.</_></rects>
      <tilted>0</tilted></_>
    <_>
      <rects>
        <_>
          5 4 2 2 -1.</_>
        <_>
          5 5 2 1 2.</_></rects>
      <tilted>0</tilted></_>
    <_>
      <rects>
        <_>
          5 5 1 2 -1.</_>
        <_>
          5 6 1 1 2.</_></rects>
      <tilted>0</tilted></_>
    <_>
      <rects>
        <_>
          5 7 14 2 -1.</_>
        <_>
          12 7 7 2 2.</_></rects>
      <tilted>0</tilted></_>
    <_>
      <rects>
        <_>
          5 7 14 4 -1.</_>
        <_>
          12 7 7 4 2.</_></rects>
      <tilted>0</tilted></_>
    <_>
      <rects>
        <_>
          5 8 1 3 -1.</_>
        <_>
          5 9 1 1 3.</_></rects>
      <tilted>0</tilted></_>
    <_>
      <rects>
        <_>
          5 8 1 4 -1.</_>
        <_>
          5 10 1 2 2.</_></rects>
      <tilted>0</tilted></_>
    <_>
      <rects>
        <_>
          5 9 1 2 -1.</_>
        <_>
          5 10 1 1 2.</_></rects>
      <tilted>0</tilted></_>
    <_>
      <rects>
        <_>
          5 9 3 2 -1.</_>
        <_>
          6 9 1 2 3.</_></rects>
      <tilted>0</tilted></_>
    <_>
      <rects>
        <_>
          5 9 6 2 -1.</_>
        <_>
          8 9 3 2 2.</_></rects>
      <tilted>0</tilted></_>
    <_>
      <rects>
        <_>
          5 9 9 2 -1.</_>
        <_>
          8 9 3 2 3.</_></rects>
      <tilted>0</tilted></_>
    <_>
      <rects>
        <_>
          5 10 2 1 -1.</_>
        <_>
          6 10 1 1 2.</_></rects>
      <tilted>0</tilted></_>
    <_>
      <rects>
        <_>
          5 13 1 4 -1.</_>
        <_>
          5 15 1 2 2.</_></rects>
      <tilted>0</tilted></_>
    <_>
      <rects>
        <_>
          5 13 10 6 -1.</_>
        <_>
          5 15 10 2 3.</_></rects>
      <tilted>0</tilted></_>
    <_>
      <rects>
        <_>
          5 18 12 2 -1.</_>
        <_>
          5 19 12 1 2.</_></rects>
      <tilted>0</tilted></_>
    <_>
      <rects>
        <_>
          6 1 6 2 -1.</_>
        <_>
          6 2 6 1 2.</_></rects>
      <tilted>0</tilted></_>
    <_>
      <rects>
        <_>
          6 1 7 3 -1.</_>
        <_>
          6 2 7 1 3.</_></rects>
      <tilted>0</tilted></_>
    <_>
      <rects>
        <_>
          7 1 1 4 -1.</_>
        <_>
          7 3 1 2 2.</_></rects>
      <tilted>0</tilted></_>
    <_>
      <rects>
        <_>
          7 2 4 3 -1.</_>
        <_>
          7 3 4 1 3.</_></rects>
      <tilted>0</tilted></_>
    <_>
      <rects>
        <_>
          7 2 6 2 -1.</_>
        <_>
          7 3 6 1 2.</_></rects>
      <tilted>0</tilted></_>
    <_>
      <rects>
        <_>
          7 5 7 3 -1.</_>
        <_>
          7 6 7 1 3.</_></rects>
      <tilted>0</tilted></_>
    <_>
      <rects>
        <_>
          7 7 4 3 -1.</_>
        <_>
          9 7 2 3 2.</_></rects>
      <tilted>0</tilted></_>
    <_>
      <rects>
        <_>
          7 16 3 3 -1.</_>
        <_>
          7 17 3 1 3.</_></rects>
      <tilted>0</tilted></_>
    <_>
      <rects>
        <_>
          8 0 8 2 -1.</_>
        <_>
          8 0 4 1 2.</_>
        <_>
          12 1 4 1 2.</_></rects>
      <tilted>0</tilted></_>
    <_>
      <rects>
        <_>
          8 2 8 1 -1.</_>
        <_>
          12 2 4 1 2.</_></rects>
      <tilted>0</tilted></_>
    <_>
      <rects>
        <_>
          9 2 8 4 -1.</_>
        <_>
          9 2 4 2 2.</_>
        <_>
          13 4 4 2 2.</_></rects>
      <tilted>0</tilted></_>
    <_>
      <rects>
        <_>
          9 8 3 3 -1.</_>
        <_>
          9 9 3 1 3.</_></rects>
      <tilted>0</tilted></_>
    <_>
      <rects>
        <_>
          9 9 2 3 -1.</_>
        <_>
          9 10 2 1 3.</_></rects>
      <tilted>0</tilted></_>
    <_>
      <rects>
        <_>
          9 10 2 2 -1.</_>
        <_>
          9 11 2 1 2.</_></rects>
      <tilted>0</tilted></_>
    <_>
      <rects>
        <_>
          10 1 4 6 -1.</_>
        <_>
          10 1 2 3 2.</_>
        <_>
          12 4 2 3 2.</_></rects>
      <tilted>0</tilted></_>
    <_>
      <rects>
        <_>
          10 2 3 2 -1.</_>
        <_>
          11 2 1 2 3.</_></rects>
      <tilted>0</tilted></_>
    <_>
      <rects>
        <_>
          10 2 2 2 -1.</_>
        <_>
          10 3 2 1 2.</_></rects>
      <tilted>0</tilted></_>
    <_>
      <rects>
        <_>
          10 2 7 2 -1.</_>
        <_>
          10 3 7 1 2.</_></rects>
      <tilted>0</tilted></_>
    <_>
      <rects>
        <_>
          10 3 2 3 -1.</_>
        <_>
          10 4 2 1 3.</_></rects>
      <tilted>0</tilted></_>
    <_>
      <rects>
        <_>
          10 9 1 2 -1.</_>
        <_>
          10 10 1 1 2.</_></rects>
      <tilted>0</tilted></_>
    <_>
      <rects>
        <_>
          10 10 1 2 -1.</_>
        <_>
          10 11 1 1 2.</_></rects>
      <tilted>0</tilted></_>
    <_>
      <rects>
        <_>
          11 2 3 2 -1.</_>
        <_>
          12 2 1 2 3.</_></rects>
      <tilted>0</tilted></_>
    <_>
      <rects>
        <_>
          11 2 2 2 -1.</_>
        <_>
          11 3 2 1 2.</_></rects>
      <tilted>0</tilted></_>
    <_>
      <rects>
        <_>
          12 2 3 2 -1.</_>
        <_>
          13 2 1 2 3.</_></rects>
      <tilted>0</tilted></_>
    <_>
      <rects>
        <_>
          12 2 2 6 -1.</_>
        <_>
          12 4 2 2 3.</_></rects>
      <tilted>0</tilted></_>
    <_>
      <rects>
        <_>
          12 2 3 4 -1.</_>
        <_>
          12 4 3 2 2.</_></rects>
      <tilted>0</tilted></_>
    <_>
      <rects>
        <_>
          12 3 1 2 -1.</_>
        <_>
          12 4 1 1 2.</_></rects>
      <tilted>0</tilted></_>
    <_>
      <rects>
        <_>
          12 4 4 1 -1.</_>
        <_>
          14 4 2 1 2.</_></rects>
      <tilted>0</tilted></_>
    <_>
      <rects>
        <_>
          12 6 6 1 -1.</_>
        <_>
          14 6 2 1 3.</_></rects>
      <tilted>0</tilted></_>
    <_>
      <rects>
        <_>
          13 2 2 2 -1.</_>
        <_>
          14 2 1 2 2.</_></rects>
      <tilted>0</tilted></_>
    <_>
      <rects>
        <_>
          13 2 4 8 -1.</_>
        <_>
          13 6 4 4 2.</_></rects>
      <tilted>0</tilted></_>
    <_>
      <rects>
        <_>
          13 4 6 3 -1.</_>
        <_>
          16 4 3 3 2.</_></rects>
      <tilted>0</tilted></_>
    <_>
      <rects>
        <_>
          13 4 6 4 -1.</_>
        <_>
          16 4 3 4 2.</_></rects>
      <tilted>0</tilted></_>
    <_>
      <rects>
        <_>
          13 5 4 4 -1.</_>
        <_>
          13 5 2 2 2.</_>
        <_>
          15 7 2 2 2.</_></rects>
      <tilted>0</tilted></_>
    <_>
      <rects>
        <_>
          13 5 6 4 -1.</_>
        <_>
          16 5 3 4 2.</_></rects>
      <tilted>0</tilted></_>
    <_>
      <rects>
        <_>
          13 7 6 3 -1.</_>
        <_>
          16 7 3 3 2.</_></rects>
      <tilted>0</tilted></_>
    <_>
      <rects>
        <_>
          13 8 6 3 -1.</_>
        <_>
          16 8 3 3 2.</_></rects>
      <tilted>0</tilted></_>
    <_>
      <rects>
        <_>
          14 0 2 6 -1.</_>
        <_>
          14 3 2 3 2.</_></rects>
      <tilted>0</tilted></_>
    <_>
      <rects>
        <_>
          14 3 3 8 -1.</_>
        <_>
          14 7 3 4 2.</_></rects>
      <tilted>0</tilted></_>
    <_>
      <rects>
        <_>
          14 5 5 6 -1.</_>
        <_>
          14 8 5 3 2.</_></rects>
      <tilted>0</tilted></_>
    <_>
      <rects>
        <_>
          14 6 5 4 -1.</_>
        <_>
          14 8 5 2 2.</_></rects>
      <tilted>0</tilted></_>
    <_>
      <rects>
        <_>
          14 10 4 6 -1.</_>
        <_>
          14 10 2 3 2.</_>
        <_>
          16 13 2 3 2.</_></rects>
      <tilted>0</tilted></_>
    <_>
      <rects>
        <_>
          15 5 1 6 -1.</_>
        <_>
          15 7 1 2 3.</_></rects>
      <tilted>0</tilted></_>
    <_>
      <rects>
        <_>
          15 7 4 2 -1.</_>
        <_>
          17 7 2 2 2.</_></rects>
      <tilted>0</tilted></_>
    <_>
      <rects>
        <_>
          15 8 4 8 -1.</_>
        <_>
          15 8 2 4 2.</_>
        <_>
          17 12 2 4 2.</_></rects>
      <tilted>0</tilted></_>
    <_>
      <rects>
        <_>
          15 9 4 1 -1.</_>
        <_>
          17 9 2 1 2.</_></rects>
      <tilted>0</tilted></_>
    <_>
      <rects>
        <_>
          15 9 4 2 -1.</_>
        <_>
          17 9 2 2 2.</_></rects>
      <tilted>0</tilted></_>
    <_>
      <rects>
        <_>
          15 10 1 4 -1.</_>
        <_>
          15 12 1 2 2.</_></rects>
      <tilted>0</tilted></_>
    <_>
      <rects>
        <_>
          15 11 2 6 -1.</_>
        <_>
          15 11 1 3 2.</_>
        <_>
          16 14 1 3 2.</_></rects>
      <tilted>0</tilted></_>
    <_>
      <rects>
        <_>
          16 9 2 1 -1.</_>
        <_>
          17 9 1 1 2.</_></rects>
      <tilted>0</tilted></_>
    <_>
      <rects>
        <_>
          16 9 3 2 -1.</_>
        <_>
          17 9 1 2 3.</_></rects>
      <tilted>0</tilted></_>
    <_>
      <rects>
        <_>
          16 12 3 2 -1.</_>
        <_>
          17 12 1 2 3.</_></rects>
      <tilted>0</tilted></_>
    <_>
      <rects>
        <_>
          17 6 2 8 -1.</_>
        <_>
          17 6 1 4 2.</_>
        <_>
          18 10 1 4 2.</_></rects>
      <tilted>0</tilted></_>
    <_>
      <rects>
        <_>
          17 7 3 1 -1.</_>
        <_>
          18 7 1 1 3.</_></rects>
      <tilted>0</tilted></_>
    <_>
      <rects>
        <_>
          17 7 3 2 -1.</_>
        <_>
          18 7 1 2 3.</_></rects>
      <tilted>0</tilted></_>
    <_>
      <rects>
        <_>
          17 7 3 3 -1.</_>
        <_>
          18 7 1 3 3.</_></rects>
      <tilted>0</tilted></_>
    <_>
      <rects>
        <_>
          17 10 3 2 -1.</_>
        <_>
          18 10 1 2 3.</_></rects>
      <tilted>0</tilted></_>
    <_>
      <rects>
        <_>
          18 8 2 5 -1.</_>
        <_>
          19 8 1 5 2.</_></rects>
      <tilted>0</tilted></_>
    <_>
      <rects>
        <_>
          18 8 2 6 -1.</_>
        <_>
          19 8 1 6 2.</_></rects>
      <tilted>0</tilted></_>
    <_>
      <rects>
        <_>
          18 9 2 2 -1.</_>
        <_>
          19 9 1 2 2.</_></rects>
      <tilted>0</tilted></_></features></cascade>
</opencv_storage>
